digraph Tree {
node [shape=box] ;
0 [label="positive regulation of blood vessel endothelial cell migration [GO:0043536] <= 0.5\ngini = 0.176\nsamples = 461\nvalue = [416, 45]\nclass = Não angiogênese"] ;
1 [label="peptide cross-linking [GO:0018149] <= 0.5\ngini = 0.167\nsamples = 458\nvalue = [416, 42]\nclass = Não angiogênese"] ;
0 -> 1 [labeldistance=2.5, labelangle=45, headlabel="True"] ;
2 [label="protein localization to nucleus [GO:0034504] <= 0.5\ngini = 0.157\nsamples = 455\nvalue = [416, 39]\nclass = Não angiogênese"] ;
1 -> 2 ;
3 [label="positive regulation of protein complex assembly [GO:0031334] <= 0.5\ngini = 0.147\nsamples = 452\nvalue = [416, 36]\nclass = Não angiogênese"] ;
2 -> 3 ;
4 [label="protein heterotetramerization [GO:0051290] <= 0.5\ngini = 0.136\nsamples = 448\nvalue = [415, 33]\nclass = Não angiogênese"] ;
3 -> 4 ;
5 [label="gini = 0.129\nsamples = 446\nvalue = [415, 31]\nclass = Não angiogênese"] ;
4 -> 5 ;
6 [label="gini = 0.0\nsamples = 2\nvalue = [0, 2]\nclass = Angiogênese"] ;
4 -> 6 ;
7 [label="complement activation, classical pathway [GO:0006958] <= 0.5\ngini = 0.375\nsamples = 4\nvalue = [1, 3]\nclass = Angiogênese"] ;
3 -> 7 ;
8 [label="gini = 0.0\nsamples = 3\nvalue = [0, 3]\nclass = Angiogênese"] ;
7 -> 8 ;
9 [label="gini = 0.0\nsamples = 1\nvalue = [1, 0]\nclass = Não angiogênese"] ;
7 -> 9 ;
10 [label="gini = 0.0\nsamples = 3\nvalue = [0, 3]\nclass = Angiogênese"] ;
2 -> 10 ;
11 [label="gini = 0.0\nsamples = 3\nvalue = [0, 3]\nclass = Angiogênese"] ;
1 -> 11 ;
12 [label="gini = 0.0\nsamples = 3\nvalue = [0, 3]\nclass = Angiogênese"] ;
0 -> 12 [labeldistance=2.5, labelangle=-45, headlabel="False"] ;
}
