digraph Tree {
node [shape=box] ;
0 [label="negative regulation of fibrinolysis [GO:0051918] <= 0.5\ngini = 0.083\nsamples = 461\nvalue = [441, 20]\nclass = Não angiogênese"] ;
1 [label="keratinocyte differentiation [GO:0030216] <= 0.5\ngini = 0.075\nsamples = 459\nvalue = [441, 18]\nclass = Não angiogênese"] ;
0 -> 1 [labeldistance=2.5, labelangle=45, headlabel="True"] ;
2 [label="regulation of protein phosphorylation [GO:0001932] <= 0.5\ngini = 0.068\nsamples = 457\nvalue = [441, 16]\nclass = Não angiogênese"] ;
1 -> 2 ;
3 [label="positive regulation of protein phosphorylation [GO:0001934] <= 0.5\ngini = 0.06\nsamples = 454\nvalue = [440, 14]\nclass = Não angiogênese"] ;
2 -> 3 ;
4 [label="programmed cell death [GO:0012501] <= 0.5\ngini = 0.048\nsamples = 447\nvalue = [436, 11]\nclass = Não angiogênese"] ;
3 -> 4 ;
5 [label="meiotic spindle organization [GO:0000212] <= 0.5\ngini = 0.044\nsamples = 446\nvalue = [436, 10]\nclass = Não angiogênese"] ;
4 -> 5 ;
6 [label="proton transmembrane transport [GO:1902600] <= 0.5\ngini = 0.04\nsamples = 445\nvalue = [436, 9]\nclass = Não angiogênese"] ;
5 -> 6 ;
7 [label="regulation of synapse maturation [GO:0090128] <= 0.5\ngini = 0.035\nsamples = 444\nvalue = [436, 8]\nclass = Não angiogênese"] ;
6 -> 7 ;
8 [label="tryptophanyl-tRNA aminoacylation [GO:0006436] <= 0.5\ngini = 0.031\nsamples = 443\nvalue = [436, 7]\nclass = Não angiogênese"] ;
7 -> 8 ;
9 [label="tight junction assembly [GO:0120192] <= 0.5\ngini = 0.027\nsamples = 442\nvalue = [436, 6]\nclass = Não angiogênese"] ;
8 -> 9 ;
10 [label="response to stimulus [GO:0050896] <= 0.5\ngini = 0.022\nsamples = 441\nvalue = [436, 5]\nclass = Não angiogênese"] ;
9 -> 10 ;
11 [label="glycosaminoglycan biosynthetic process [GO:0006024] <= 0.5\ngini = 0.018\nsamples = 440\nvalue = [436, 4]\nclass = Não angiogênese"] ;
10 -> 11 ;
12 [label="positive regulation of transcription of nucleolar large rRNA by RNA polymerase I [GO:1901838] <= 0.5\ngini = 0.014\nsamples = 439\nvalue = [436, 3]\nclass = Não angiogênese"] ;
11 -> 12 ;
13 [label="phosphorylation [GO:0016310] <= 0.5\ngini = 0.009\nsamples = 438\nvalue = [436, 2]\nclass = Não angiogênese"] ;
12 -> 13 ;
14 [label="mRNA catabolic process [GO:0006402] <= 0.5\ngini = 0.005\nsamples = 437\nvalue = [436, 1]\nclass = Não angiogênese"] ;
13 -> 14 ;
15 [label="gini = 0.0\nsamples = 435\nvalue = [435, 0]\nclass = Não angiogênese"] ;
14 -> 15 ;
16 [label="negative regulation of apoptotic process [GO:0043066] <= 0.5\ngini = 0.5\nsamples = 2\nvalue = [1, 1]\nclass = Não angiogênese"] ;
14 -> 16 ;
17 [label="gini = 0.0\nsamples = 1\nvalue = [0, 1]\nclass = Angiogênese"] ;
16 -> 17 ;
18 [label="gini = 0.0\nsamples = 1\nvalue = [1, 0]\nclass = Não angiogênese"] ;
16 -> 18 ;
19 [label="gini = 0.0\nsamples = 1\nvalue = [0, 1]\nclass = Angiogênese"] ;
13 -> 19 ;
20 [label="gini = 0.0\nsamples = 1\nvalue = [0, 1]\nclass = Angiogênese"] ;
12 -> 20 ;
21 [label="gini = 0.0\nsamples = 1\nvalue = [0, 1]\nclass = Angiogênese"] ;
11 -> 21 ;
22 [label="gini = 0.0\nsamples = 1\nvalue = [0, 1]\nclass = Angiogênese"] ;
10 -> 22 ;
23 [label="gini = 0.0\nsamples = 1\nvalue = [0, 1]\nclass = Angiogênese"] ;
9 -> 23 ;
24 [label="gini = 0.0\nsamples = 1\nvalue = [0, 1]\nclass = Angiogênese"] ;
8 -> 24 ;
25 [label="gini = 0.0\nsamples = 1\nvalue = [0, 1]\nclass = Angiogênese"] ;
7 -> 25 ;
26 [label="gini = 0.0\nsamples = 1\nvalue = [0, 1]\nclass = Angiogênese"] ;
6 -> 26 ;
27 [label="gini = 0.0\nsamples = 1\nvalue = [0, 1]\nclass = Angiogênese"] ;
5 -> 27 ;
28 [label="gini = 0.0\nsamples = 1\nvalue = [0, 1]\nclass = Angiogênese"] ;
4 -> 28 ;
29 [label="response to cold [GO:0009409] <= 0.5\ngini = 0.49\nsamples = 7\nvalue = [4, 3]\nclass = Não angiogênese"] ;
3 -> 29 ;
30 [label="negative regulation of gene expression [GO:0010629] <= 0.5\ngini = 0.48\nsamples = 5\nvalue = [2, 3]\nclass = Angiogênese"] ;
29 -> 30 ;
31 [label="gini = 0.0\nsamples = 3\nvalue = [0, 3]\nclass = Angiogênese"] ;
30 -> 31 ;
32 [label="gini = 0.0\nsamples = 2\nvalue = [2, 0]\nclass = Não angiogênese"] ;
30 -> 32 ;
33 [label="gini = 0.0\nsamples = 2\nvalue = [2, 0]\nclass = Não angiogênese"] ;
29 -> 33 ;
34 [label="negative chemotaxis [GO:0050919] <= 0.5\ngini = 0.444\nsamples = 3\nvalue = [1, 2]\nclass = Angiogênese"] ;
2 -> 34 ;
35 [label="gini = 0.0\nsamples = 2\nvalue = [0, 2]\nclass = Angiogênese"] ;
34 -> 35 ;
36 [label="gini = 0.0\nsamples = 1\nvalue = [1, 0]\nclass = Não angiogênese"] ;
34 -> 36 ;
37 [label="gini = 0.0\nsamples = 2\nvalue = [0, 2]\nclass = Angiogênese"] ;
1 -> 37 ;
38 [label="gini = 0.0\nsamples = 2\nvalue = [0, 2]\nclass = Angiogênese"] ;
0 -> 38 [labeldistance=2.5, labelangle=-45, headlabel="False"] ;
}
